net 
{
    node_size = (76 36);
}

node strava_popularity
{
    label = "strava_popularity";
    position = (104 342);
    states = ("lo"  "mid"  "hi");
}

node here_jam_factor
{
    label = "here_jam_factor";
    position = (424 342);
    states = ("lo"  "mid"  "hi");
}

node here_flow_speed
{
    label = "here_flow_speed";
    position = (584 342);
    states = ("lo"  "mid"  "hi");
}

node here_speed_cap
{
    label = "here_speed_cap";
    position = (744 342);
    states = ("lo"  "mid"  "hi");
}

node road_traffic
{
    label = "road_traffic";
    position = (584 222);
    states = ("lo"  "mid"  "hi");
}

node strava_hazardous
{
    label = "strava_hazardous";
    position = (264 342);
    states = ("lo"  "mid"  "hi");
}

node road_quality
{
    label = "road_quality";
    position = (264 222);
    states = ("lo"  "mid"  "hi");
}

node diff
{
    label = "diff";
    position = (264 102);
    states = ("lo"  "mid"  "hi");
}

node accidents_prob
{
    label = "accidents_prob";
    position = (424 -18);
    states = ("lo"  "mid"  "hi");
}

node risk
{
    label = "risk";
    position = (584 102);
    states = ("lo"  "mid"  "hi");
}

potential (strava_popularity |)
{
    data = (0.33333333 0.33333333 0.33333333);
}

potential (here_jam_factor |)
{
    data = (0.20000000 0.20000000 0.60000000);
}

potential (here_flow_speed |)
{
    data = (0.50000000 0.30000000 0.20000000);
}

potential (here_speed_cap |)
{
    data = (0.50000000 0.30000000 0.20000000);
}

potential (road_traffic | here_jam_factor here_flow_speed here_speed_cap)
{
    data = ((((0.95000000 0.04000000 0.01000000)
        (0.80000000 0.17000000 0.03000000)
        (0.70000000 0.25000000 0.05000000))
        ((0.80000000 0.17000000 0.03000000)
        (0.70000000 0.25000000 0.05000000)
        (0.60000000 0.30000000 0.10000000))
        ((0.70000000 0.25000000 0.05000000)
        (0.60000000 0.30000000 0.10000000)
        (0.50000000 0.30000000 0.20000000)))
        (((0.45000000 0.35000000 0.20000000)
        (0.35000000 0.35000000 0.30000000)
        (0.30000000 0.30000000 0.40000000))
        ((0.35000000 0.35000000 0.30000000)
        (0.30000000 0.30000000 0.40000000)
        (0.25000000 0.25000000 0.50000000))
        ((0.30000000 0.30000000 0.40000000)
        (0.25000000 0.25000000 0.50000000)
        (0.20000000 0.20000000 0.60000000)))
        (((0.20000000 0.30000000 0.50000000)
        (0.15000000 0.25000000 0.60000000)
        (0.10000000 0.20000000 0.70000000))
        ((0.15000000 0.25000000 0.60000000)
        (0.10000000 0.20000000 0.70000000)
        (0.05000000 0.15000000 0.80000000))
        ((0.10000000 0.20000000 0.70000000)
        (0.05000000 0.15000000 0.80000000)
        (0.01000000 0.04000000 0.95000000))));
}

potential (strava_hazardous |)
{
    data = (0.20000000 0.75000000 0.05000000);
}

potential (road_quality | strava_popularity strava_hazardous)
{
    data = (((0.80000000 0.15000000 0.05000000)
        (0.50000000 0.40000000 0.10000000)
        (0.30000000 0.40000000 0.30000000))
        ((0.50000000 0.40000000 0.10000000)
        (0.40000000 0.30000000 0.30000000)
        (0.15000000 0.35000000 0.50000000))
        ((0.30000000 0.40000000 0.30000000)
        (0.15000000 0.35000000 0.50000000)
        (0.10000000 0.20000000 0.70000000)));
}

potential (diff | road_traffic road_quality)
{
    data = (((0.80000000 0.15000000 0.05000000)
        (0.70000000 0.20000000 0.10000000)
        (0.55000000 0.25000000 0.20000000))
        ((0.35000000 0.35000000 0.30000000)
        (0.30000000 0.30000000 0.40000000)
        (0.25000000 0.25000000 0.50000000))
        ((0.15000000 0.25000000 0.60000000)
        (0.10000000 0.20000000 0.70000000)
        (0.05000000 0.15000000 0.80000000)));
}

potential (accidents_prob |)
{
    data = (0.33333333 0.33333333 0.33333333);
}

potential (risk | accidents_prob road_quality road_traffic)
{
    data = ((((0.33333333 0.33333333 0.33333333)
        (0.50000000 0.50000000 0.00000000)
        (0.50000000 0.50000000 0.00000000))
        ((0.50000000 0.50000000 0.00000000)
        (0.50000000 0.50000000 0.00000000)
        (0.50000000 0.50000000 0.00000000))
        ((0.50000000 0.50000000 0.00000000)
        (0.50000000 0.50000000 0.00000000)
        (0.50000000 0.50000000 0.00000000)))
        (((0.50000000 0.50000000 0.00000000)
        (0.50000000 0.50000000 0.00000000)
        (0.50000000 0.50000000 0.00000000))
        ((0.50000000 0.50000000 0.00000000)
        (0.50000000 0.50000000 0.00000000)
        (0.50000000 0.50000000 0.00000000))
        ((0.50000000 0.50000000 0.00000000)
        (0.50000000 0.50000000 0.00000000)
        (0.50000000 0.50000000 0.00000000)))
        (((0.33333333 0.33333333 0.33333333)
        (0.33333333 0.33333333 0.33333333)
        (0.33333333 0.33333333 0.33333333))
        ((0.33333333 0.33333333 0.33333333)
        (0.33333333 0.33333333 0.33333333)
        (0.33333333 0.33333333 0.33333333))
        ((0.33333333 0.33333333 0.33333333)
        (0.33333333 0.33333333 0.33333333)
        (0.33333333 0.33333333 0.33333333))));
}
