net 
{
    node_size = (76 36);
}

node strava_popularity
{
    label = "strava_popularity";
    position = (104 212);
    states = ("lo"  "mid"  "hi");
}

node here_jam_factor
{
    label = "here_jam_factor";
    position = (424 212);
    states = ("lo"  "mid"  "hi");
}

node here_flow_speed
{
    label = "here_flow_speed";
    position = (584 212);
    states = ("lo"  "mid"  "hi");
}

node here_speed_cap
{
    label = "here_speed_cap";
    position = (744 212);
    states = ("lo"  "mid"  "hi");
}

node road_current_speed
{
    label = "road_current_speed";
    position = (664 102);
    states = ("lo"  "mid"  "hi");
}

node road_traffic
{
    label = "road_traffic";
    position = (584 -18);
    states = ("lo"  "hi");
}

node strava_hazardous
{
    label = "strava_hazardous";
    position = (264 212);
    states = ("no"  "yes");
}

node road_recom
{
    label = "road_recom";
    position = (184 102);
    states = ("lo"  "mid"  "hi");
}

node risk
{
    label = "risk";
    position = (344 -18);
    states = ("lo"  "mid"  "hi");
}

potential (strava_popularity |)
{
    data = (0.80000000 0.10000000 0.10000000);
}

potential (here_jam_factor |)
{
    data = (0.20000000 0.30000000 0.50000000);
}

potential (here_flow_speed |)
{
    data = (0.50000000 0.30000000 0.20000000);
}

potential (here_speed_cap |)
{
    data = (0.50000000 0.30000000 0.20000000);
}

potential (road_current_speed | here_flow_speed here_speed_cap)
{
    data = (((0.95000000 0.04000000 0.01000000)
        (0.30000000 0.50000000 0.20000000)
        (0.08000000 0.12000000 0.80000000))
        ((0.15000000 0.30000000 0.55000000)
        (0.10000000 0.20000000 0.70000000)
        (0.05000000 0.10000000 0.85000000))
        ((0.08000000 0.12000000 0.80000000)
        (0.05000000 0.10000000 0.85000000)
        (0.02000000 0.08000000 0.90000000)));
}

potential (road_traffic | here_jam_factor road_current_speed)
{
    data = (((0.90000000 0.10000000)
        (0.85000000 0.15000000)
        (0.80000000 0.20000000))
        ((0.55000000 0.45000000)
        (0.50000000 0.50000000)
        (0.45000000 0.55000000))
        ((0.20000000 0.80000000)
        (0.15000000 0.85000000)
        (0.10000000 0.90000000)));
}

potential (strava_hazardous |)
{
    data = (0.80000000 0.20000000);
}

potential (road_recom | strava_popularity strava_hazardous)
{
    data = (((0.85000000 0.10000000 0.05000000)
        (0.45000000 0.35000000 0.20000000))
        ((0.40000000 0.35000000 0.25000000)
        (0.15000000 0.35000000 0.50000000))
        ((0.15000000 0.25000000 0.60000000)
        (0.10000000 0.20000000 0.70000000)));
}

potential (risk | road_recom road_traffic)
{
    data = (((0.90000000 0.05000000 0.05000000)
        (0.30000000 0.40000000 0.30000000))
        ((0.25000000 0.25000000 0.50000000)
        (0.20000000 0.20000000 0.60000000))
        ((0.10000000 0.10000000 0.80000000)
        (0.05000000 0.05000000 0.90000000)));
}
